<?xml version="1.0"?>
<opencv_storage>
<opencv_ml_svm>
  <format>3</format>
  <svmType>C_SVC</svmType>
  <kernel>
    <type>INTER</type>
    <gamma>1.</gamma></kernel>
  <C>1.</C>
  <term_criteria><iterations>100</iterations></term_criteria>
  <var_count>2</var_count>
  <class_count>2</class_count>
  <class_labels type_id="opencv-matrix">
    <rows>2</rows>
    <cols>1</cols>
    <dt>i</dt>
    <data>
      -1 1</data></class_labels>
  <sv_total>3</sv_total>
  <support_vectors>
    <_>
      501. 10.</_>
    <_>
      255. 10.</_>
    <_>
      501. 255.</_></support_vectors>
  <decision_functions>
    <_>
      <sv_count>3</sv_count>
      <rho>-1.</rho>
      <alpha>
        8.1300813008130073e-003 8.1632653061224497e-003
        -1.6293346606935457e-002</alpha></_></decision_functions></opencv_ml_svm>
</opencv_storage>
